function [Y,Xf,Af] = net_test_1(X,~,~)
%NET_TEST_1 neural network simulation function.
%
% Generated by Neural Network Toolbox function genFunction, 24-Feb-2019 19:58:45.
% 
% [Y] = net_test_1(X,~,~) takes these arguments:
% 
%   X = 1xTS cell, 1 inputs over TS timesteps
%   Each X{1,ts} = 68xQ matrix, input #1 at timestep ts.
% 
% and returns:
%   Y = 1xTS cell of 1 outputs over TS timesteps.
%   Each Y{1,ts} = 1xQ matrix, output #1 at timestep ts.
% 
% where Q is number of samples (or series) and TS is the number of timesteps.

%#ok<*RPMT0>

% ===== NEURAL NETWORK CONSTANTS =====

% Input 1
x1_step1.xoffset = [-0.99999073973619;-0.999998518356068;-10.88;-21.06;-15.8020000089854;259.7;0.34;0.09;2;-10.88;-21.06;-15.9059999972507;259.7;0.34;0.0900000003352761;2;-10.8799999959767;-21.06;-16.269999949038;259.7;0.34;0.0900000003352761;2;-10.8799999959767;-20.9180000095218;-16.269999949038;259.7;0.34;0.0900000006705522;2;-10.88;-21.06;-16.27;261.280000028163;0.34;0.09;3;-10.6406666674043;-19.0546667084868;-15.5933333310423;262.52;0.363333333333333;0.1;3.5;-10.4713333322381;-18.385;-15.5266666666667;260.566666663314;0.363333333333333;0.100333333310982;2.93333333221575;-10.3558333331098;-17.2241666571951;-13.8041666666667;261.375;0.38;0.105833333333333;2.91666666666667;-11.0066666666667;-17.0316666666667;-13.795;261.375;0.380833333333333;0.105833333333333;2.93333333500971;-0.99999999997208;-0.999999999651491;45.0000512377228];
x1_step1.gain = [1.00000481536049;1.00000074082251;0.0941176470588235;0.0526315789473684;0.0595450756141625;0.00368391969055075;0.0373552484124019;0.14336917562724;0.000859845227858985;0.0941176471004024;0.0526315789571202;0.0588997526258078;0.00368853970697485;0.037355248939668;0.143369175630686;0.000859845228850509;0.0941176471182219;0.0526315789571202;0.0582750583615913;0.00371043746090894;0.037355248939668;0.143369175630686;0.000859845228850509;0.0919540230055154;0.0529464711063273;0.0582750583615913;0.00368391969055075;0.037355248939668;0.147928996137156;0.000859845228850509;0.0919540229885057;0.0526315789473684;0.0600024001015565;0.00369467228276076;0.0413393964448119;0.14336917562724;0.000860215053763441;0.0973362317865191;0.0596338480978623;0.0608457560127594;0.00372788895861422;0.0430230890492095;0.153002677546857;0.00105932203389831;0.0981450584015847;0.0613999181334425;0.0609694136774718;0.00410514648538669;0.0428954423592493;0.157072174663982;0.00118450665393632;0.100523560237375;0.0700607193135027;0.0789941412379557;0.00375565695835491;0.0454864204082406;0.172364263142775;0.00136565380675999;0.0973393900064893;0.0705363703159442;0.0721524581434329;0.00406570174001135;0.0448723941291951;0.163885171106474;0.00135671403860006;1.00000000018285;1.23827831778244;0.0457776500815367];
x1_step1.ymin = -1;

% Layer 1
b1 = [0.70679791897755139818;-0.92951873900224035729;0.0092534065326778675714;0.063802750788360035328;-0.43328583541652071487;0.55365226874306583404;-0.015469044877243497832;0.20388034046487316098;-0.83874726404933330759;0.61659133136452570767;0.6780493122588464594;0.58178973727728600096;-0.2736466862813201617;-0.13185046914665971007;-0.32373843234600124807;0.65708982111181135632;-0.73394640145892564576;1.0177559565284777232;-0.1332806671318756131;0.01424184782148712157;-0.71549255465016814437;0.1564172294697232235;0.99700815704992307165;0.69343969804802385593;-0.065449169883899649403;0.58991338980165664019;0.50889780837162712501;0.37912226380975111439;1.3845348372684520566;0.96255327974426785342];
IW1_1 = [-0.4004873035854122354 0.1692225203559843405 0.5591413209337511292 0.5114208952850475276 0.75596918918113065189 0.97147358289027907485 0.26923015418424645073 -0.38101368801837365297 1.0592777960471835286 0.53329386390957722597 0.32941468740146007121 0.025240335466444295542 -0.91413334183369387986 0.65606517358259197614 0.22536449887716647478 -0.24428881988276593407 -0.4363492718414008209 -0.01678491180713962902 -0.68173228016914644289 -0.32295205482533145824 0.89898384966187072642 0.016149050498427606343 -0.82554355384668054452 -0.47002025958568310893 0.51974878469937546566 -0.38568615794436122979 -0.78996946201002804511 0.018572008314400281076 0.75497803918720729488 -0.017445537889501885886 -0.38488423710879898776 -0.42950220132435068532 0.27523428305147740192 0.30992298399841333723 -0.16015395250322853049 -0.84218043847239487665 -0.21841569542579195029 -0.064864050032931344636 -0.6931771403815413235 0.91683261311688979411 0.91319310343177850786 0.7167670998573294483 0.34785746558949787177 0.076429220367061873054 -0.71661613642836663463 0.16275329279240557945 0.023642073385366016436 0.66094150258064610082 0.62840439907165357436 -0.49325756153136768312 0.92560771182479106844 -0.76040117489521086291 0.84585293389751070592 0.34942829435023464724 0.097867813302019407429 0.66482174883709832525 0.2695415015543569659 0.88637518659936076482 0.18991155493913222663 0.5766526459468224175 0.029646095123715191649 0.20464382139315032139 -0.56486929600417068453 0.75945269028257933464 0.33997432461315196806 0.54945481620784464294 -0.1518568968367064731 0.56002645982591792162;0.2231597223344035652 0.54742977491093158804 0.88387815802129288123 -0.97820634367364522888 -0.95587487629361123087 -0.54912967296755821334 -0.29693564003698802445 0.89840618379061543131 -0.54701138720123199111 -0.72959625513055603729 -0.69367909580374320644 -0.60289352866749601478 -0.80164591364830251052 -0.088618616477734085679 -0.89838152874576637785 -0.16037031500593376676 0.85656330347132891845 0.28071096658535038548 -0.82739763154816992063 -0.21275145095959041575 0.74763318580127680058 -0.70771226915392793089 0.93303592593385964449 0.38443955202393104154 0.85076685956918551845 0.15324366154743479518 -0.54692308923102361806 0.15904636111141876031 -0.61359318177620270074 1.0141785422098739122 -1.0238541022495319943 -0.04897247357007950691 -0.97281450951936010441 -0.86547724780044177351 0.94363381753313602118 -0.11580132330100487148 -0.40719533721712958263 -0.31521245217822690954 -0.60819617470027831363 0.77619298210054588072 0.94544773919276059448 0.60320344798619518478 0.47825080027222038881 -0.61603634674029783547 0.55849068944315127805 0.99190865957693952204 0.77492741269076237387 -0.35756093738711286489 -0.89645859781447967407 -0.77352515847403413574 0.63010656132998721368 0.53977212679813346696 0.0090067116844257093938 -0.65679825906914379718 -0.49587608610026578937 0.46447607336955831769 0.43556173647909529612 0.88446074765628024394 0.86587766044133251953 -0.16212967987537169057 -0.44512912704901325123 -0.37784903752752391215 0.31386564909384390143 -0.43660481053292710119 -0.24611201587543776736 0.4584054326941469637 0.61703003375126241892 -0.005172773961275643588;0.33045336591724611131 -0.16292123112793507889 -0.33338676208213074981 0.9352462909772605304 -0.62262793252657833154 -0.32269939723353180394 -0.44495687734809025171 0.68835223988455984667 0.67611931728935070751 0.53002731626226640138 0.20489694776537481502 -0.033740895345533289396 -0.57677330675215054967 -0.57142010564160428121 -0.68464828856936899015 -0.061895273486784072037 -1.0362988852116790106 0.83706918898179871746 -0.35747610487840519866 -0.14361412410374363446 0.20630420185798961641 0.41856176153840984888 -1.0329272221544607557 0.53840135490455243161 -0.020411193754192199362 0.19268297140058648909 -0.41669615222739841975 -0.38638013356466127668 -0.66706831478463646246 0.039446931107516833293 -0.14582003502421220231 0.55969601911921973425 -0.64040756623102190748 0.65595584717439059386 -0.27832179234512238741 1.0615003633795867533 -0.86730260782387469387 0.27065856388499848206 0.011544495816257131435 0.55101439373259386567 -0.29934640328566924916 -0.58576768423398273278 -0.56836642719340457752 -0.33449233093420216445 -0.13464108592636375716 0.58089847173981601358 0.43672641984632770695 -0.53131762812785254813 -0.72198580513788501722 -0.67936376640502371682 0.10363939865853927236 0.97285708532354808753 -0.50349978947260087825 -0.54771011181294426695 0.30636927836220628762 -0.99167892489662035072 -0.1597640531877193848 -0.40945010560222566687 -0.043509029287212966364 0.47351258769223392164 -0.50521584106657824176 -0.69190823704801718286 -0.80634795332410758029 -0.59932701920551234576 -0.89215382586206992688 -0.033834849529108319832 0.23466949623940283609 -2.6421769617552230969;-0.49580659328253412488 -0.7366396727041396586 0.43293328583976287138 -1.0101081416999755369 -0.87613847553682455693 -0.35360963258958039157 -0.20102245867756377007 0.8140743844645120797 -0.36437209108111862088 -0.26922813460655187212 -0.61552285401658612951 -0.54989850236665194227 0.754229732306163414 0.20065073831727733844 0.38985922037215847702 -0.63033053886612244732 0.84577238229359907873 -0.97509424865308091945 -0.35150756882419603722 -0.24585636959272849644 -0.18678532938446509859 -0.91082509465838989993 -0.26452038104361330628 -0.85319058383349688501 -0.29897090403533183034 -0.5222289708397080954 -0.42265158022091814383 0.28119140819751803351 0.010871870300336154008 -0.22262065748106030227 -0.24134398578225318976 -0.11060969353774526003 -0.75097347855979967868 0.13884868860316884609 -0.63003756320240100752 -0.52878882930421944319 -0.031906699416995615293 -0.14055648281204702332 -0.94039661061117507668 -0.640052186077229468 0.50078859416765075796 -0.085194469548753828936 0.9075658720396215795 -0.92434434118647967882 0.5431983527328613226 -0.82337759971431900841 0.43855624421149652648 -0.71541193608426523198 -0.76022941386839881783 0.066988126130189534768 -0.33722771631155273875 -0.73706008844478998476 0.090438441117369386402 0.32513258876576550671 0.44960613756556977449 0.26099355049955136332 -0.44520194618692354727 -0.40849542249985709708 0.79481131011777861328 0.1710863726398807183 0.96960049362397249251 0.082538293505990262267 -0.8499582288656497564 -0.24341102996604965791 0.59357289406080704364 -0.14780939536459611339 0.97283691461583232662 0.19138398950196169879;0.30091516744900204117 -0.31308493558963207404 -0.45591714271673455805 0.68346778197926649767 0.81790677821929802516 -0.91006627342471180242 -0.86618877082932077549 0.82228307919799636938 0.94476538718360081326 0.20219811190873476781 0.93174669838491785967 -0.37234560894915208484 -0.35909069459842885008 0.049064888395274175448 -0.85881276457616040343 0.098463734150864401506 0.2390124642323885884 -0.21299970211943675125 -0.92685083029259951459 -0.65050095132121676933 -0.88478125039526522855 0.47989342481412372576 -0.8736956232655589405 0.2102364334989927086 0.61539250891340235849 -0.56241281905211426562 0.049217042142662204007 0.87624265377224586082 -0.1258330857354633403 -0.47695142033941334558 0.0035894624180692518214 -0.25702293464964365288 0.3872276559263537199 -0.038222766655974030336 0.24480646599378316774 -0.94044505771345487943 -0.39923374735875233332 -0.92172332943638890512 -0.22384311524617067635 0.058020284827193617516 0.30155106917397339616 0.90253471301863175125 0.3716744102069157174 -0.18816253514414918446 0.3380546684491063103 -0.52606502652449971258 -0.93355715417810736234 -0.62541420461629271266 0.92188593246970518269 0.86944817063144685942 0.50284615312191871528 0.32917461970866829235 -0.76546635208083535495 0.37804101400782685882 -0.88080116160743204823 0.179868854757585378 1.0564284107597801121 -0.81288131704758637142 0.37392044187227707619 0.12879855049344907103 0.94240878526949500849 0.35217510951093089488 0.81394127232860724597 -0.77151246223384029044 -0.95069704170148117139 0.47410497826438252611 0.19892779441092919845 -0.58518793012102410245;-0.096570859228256880624 0.60633989364682772116 -0.52783438912205082882 -0.7697748856141582996 -0.8638275292557872076 -0.43092898454447153833 -0.48114100437361712048 -0.34435635375705914152 -0.86229091375812272346 -0.8995304541920392527 -0.53662433580772694874 -0.47877816032126030432 -0.92565398533166265427 -0.98922091005144296982 -0.36340207521800960144 -0.49943936710263947543 0.92036006376100520932 -0.077683580052132925053 -0.45373312633421175599 -0.82670801560996010071 -0.98066797951118978016 0.080268073391362382285 0.29824037682349069378 0.41075384418527594033 -0.019206005508535420323 -0.36293601254872154271 -0.35921382217802727554 -0.11362313860100504981 0.34921893924228453177 0.34355230113587365004 -0.4004465591392656898 -0.95672148014604363464 0.71125574224265009082 -0.65515204723704967282 -0.65308857125541885935 0.2921080732607146957 -0.53513861523879757698 -0.35457932271690872916 -0.3355256434464851667 -0.50049055114098328634 0.17214450965384012204 0.11486822839042915012 -0.56938949859999177239 -0.79457425989192775884 -0.86426080674585503694 0.49444417218928621294 0.15137062389162309062 0.39656644160422754863 0.41727009118042523994 0.52461130211158535364 -0.83169594431096693921 0.25616708615840677599 0.39725946333779565967 0.15176916077386243265 0.69876126720386710911 -0.99071694591901882099 0.77913083638338664905 -0.91308159590731752253 -0.89096321992863114492 0.48736267332082233716 0.98087853314817408101 -0.20837453162967678466 -0.42090319929201525095 -0.95260353045058498989 0.45737511529686009082 0.1050245571769791858 -0.62550533895452020694 -0.20491323146653750431;0.47774602332194943122 0.70224928801175068305 0.66575450424541571248 0.77998969699817388701 -0.86678666886948574355 0.17632089508182238746 0.26662092421675326337 0.25781784504350607756 -0.67824949500897691035 0.23414141062857837805 -0.7739508391368666862 -0.14046191949461384052 -0.50627765643324929012 0.24650227941694224931 -0.38435715696420869048 0.24740799618102018997 -0.18923923105865800287 -0.55032692882924738598 -0.36389099754046871915 0.88826518144679389444 -0.59557819835759717719 0.98095827097876631129 0.71502449065013995444 -0.87160907803937592853 0.11421199804672076128 0.77951068690698432917 1.0240836487711417746 0.052228888836325822187 0.44120657633737125902 -0.31046331629346524128 0.79162787677482715498 -0.95115833424306062138 -0.072880994502430102022 0.070671616956215793648 -0.44885117917834416179 -0.46252633556726219233 0.20809081521427694184 -0.0066862500370097671318 0.14462469958144105742 0.29698504743144016338 -0.62061424973101220193 -0.36129363069003689324 -0.55447813701638481998 -0.41195441646381153467 0.32972628198690784318 -1.0539076568715672888 -0.10861153531589086418 0.19109702179317167303 0.050401977781305465354 -0.062074649530541738118 0.45465641781810839372 -0.1853181378645365196 -0.99632724486004775599 -0.34857381669071169084 0.60625823211200802199 0.8771888157876510661 -0.7950671547798975336 0.074003995959465176946 -0.41504188447656098493 -0.55069174030966694389 0.15405490494291984582 -0.74710415557398668351 -0.94144369158292695587 -0.94818824088562336794 -0.67059053330555451478 0.70959542172852096975 0.066963162138139034618 -1.3693179357615599123;-0.2748368954679542564 -0.57888284047455917936 -0.27263951235267264162 -0.95956520808482614893 0.94287936008736328297 -0.5977773999098140445 -0.79146150212876320573 -0.037538668776103768787 -0.86277821718689207131 0.48688539116968448939 0.93761605663163627433 -0.013039367303632613468 0.56110544071890111617 -0.5395381488967516681 0.87052389735824153849 -0.87184076406513344448 0.18342103378775875822 -0.34296731774490862854 0.99106162159804978007 0.56816353380506690041 -0.77767811362993100044 -0.85534684852457321114 0.13204711211576711238 -0.14754769788902719063 -0.54987938293492233388 0.0045051740361656484116 -0.36143380095274862951 -0.49835983559355651051 0.94085350993952365783 -0.45347643653785618678 -0.0276292814761742965 -0.78262944821216806623 0.04670065493555951297 0.46307012128111857407 -0.56911232106527065433 0.13325632453126087795 -0.3639982490738493115 -0.88777647436898721178 -0.11580990736648179296 0.77611254434316034878 0.74486589625849763951 0.88328990879287305749 0.9576134090799077736 -0.6657281168498078161 0.09494803925842704162 0.46761900859690558319 0.34215365568444960909 0.47640256526358709666 0.62540476787198573394 -0.69283450743089780577 -0.52375383218879523195 0.24861499016585744681 0.21705625892273669453 0.8416755455707224387 -0.035986779321592214653 0.81405929213399363942 0.7896988445560831904 -0.81996543946405919812 0.74816171188857483187 0.78624741589276181397 -0.68814045848710947428 0.071094755505249920824 -0.45066155446915784344 0.12731289865942671535 0.8137479737978151606 0.57967100658615577924 -0.36211916340654926039 -0.50127547006489947545;0.091663899079981472906 0.042611466186597946049 0.27465776607197189829 0.16982060153838279826 -0.31057595689393618921 0.71930183509196432556 1.0209993875832006349 -0.70269319491477577611 -0.098092751272080960789 -0.093265373080392233174 0.87611814494927953145 0.70238191131918958909 -0.12818924142544077527 -0.20982169656142027336 0.4532062493259989 0.88515317822655503743 -0.47395846819025549967 0.75118727658955553039 -0.11048160755963200297 0.040892469158706298837 0.3487699364890364806 -0.018943270381929337015 0.0076691668907998616564 -0.73217075167036471672 -0.22056878865040485671 -0.85688437257633343069 0.38955316707202458648 0.35586530899288371099 -0.14105113749731740258 -0.080367160547950997063 0.30662330604529636213 -0.94024058046497971386 0.081241694991385823843 -0.247595316129023163 -0.66374448460447643683 0.56204511497548370613 0.06845057505196833203 0.13295223152908194897 0.28802923060843327319 0.047513609212016728878 0.70163656739269963936 -0.35211254244850526129 0.50716618196473695068 -0.3955548380061005842 0.21039282514546059355 0.38087808172012121988 0.66239122096530644868 -0.089046176811952204577 0.15897018109745866821 -0.1561191747404703789 -0.41678093026908968888 0.24485538402952666814 -0.53083850799677489984 -0.44949867065472809413 -0.78356427559703978325 0.53304597673923892476 0.30154284929634045387 -0.25292304538386273238 -0.35928298043914996818 -0.21903178706842219015 -0.59406818670818273276 0.017217054875532138841 0.38573604224537594298 -0.42174805363020528848 0.68379724739648306553 0.4204777477816376563 -0.69145941509861152952 -0.015049437435536326332;-0.7331923448271778776 -0.40274023488701349294 0.61072930260422031434 0.44543698431808786964 -0.96665259553415705529 -0.90337122268171132777 0.99523436953623245493 0.90718218338789680111 0.013096297465361882509 -0.79775568147982578449 0.72351963404308028416 -0.32085720012232238352 0.30211431537242866563 0.62954757689092077921 -0.76382307906222401961 -0.84182440361752963742 0.18720147398101527614 0.7214282334962615062 0.44339369458001420821 1.0456864089287363218 -0.60443217843666352529 -0.87964538297356775765 -0.65160052454367090036 -0.10137729947153449606 -0.23878288996657145993 0.24879101624315333452 0.66089948872518211598 0.7937158397112265007 0.087772909042822561121 0.13475547456081693465 -0.99149067627170117678 0.021378860896500630207 -0.29583029438263896971 0.85681568557268106279 -0.24831254495304533325 -0.63950239200473968371 -0.73913165251848411685 -0.75208499259884775689 -0.12537862615813868961 -0.052681299119093277783 -0.47599743543471734197 -0.55038145160003870693 -0.035850467552251609471 0.12818246249825981931 -0.66473757015569678863 -0.37738050773455372733 0.2858328565991046788 0.65511813658207707078 0.80296218120500906235 -0.21141586021451583277 -0.41314603795269377873 -0.55651824939736760367 -0.11914432692520103563 -0.86312457181771740089 0.33408690133546598 0.43815900117106953982 0.92920950721570583219 -0.1998852950753182145 0.52154972663555065893 0.9176005316055675376 0.84175943789329787936 1.03626063189044193 0.29177139287427455994 0.081583678334912090868 -0.65516965175942687427 0.44585627347428169465 0.60138385506765246191 0.7045702681515050303;0.7212889446393470072 0.30581067740020362322 0.88939967133101771601 -0.83628897945881330855 -0.50535192876754941871 0.41150188146475846773 -0.63243483679595469127 0.1236360732627487663 0.67957216014820975847 -0.84360865487656766515 -0.13458301099842182036 -0.80430404934441257492 -0.77017156197262603978 0.96866920253573873811 -0.4261083006418122654 0.6940499253755854081 -0.60636448780091434241 0.14952634442923817826 -0.53675261192738965565 -0.10608299545914134931 0.6222073807935610823 0.99002384659662823196 -0.75026739287362831377 0.80976658534476042561 -0.83408398709802011872 0.94214668266892209747 -0.75568598755036975323 0.6181987883848146792 0.43905309433619926773 0.57955588922768241922 0.041490894197307198743 -0.55303093824066440476 -0.51250280923605973094 0.39895167493639183132 0.25493700838031174705 0.89983933919505953991 -0.68439624093729167775 0.51425610980875513523 0.8238581133421627456 -0.68686629906012564017 -0.61279643354467205896 -0.064559626974333345073 0.31396066176872805542 0.59605000589934098443 0.38523756042824230938 0.84079459105261178387 -0.10144931654749421435 0.9586401320564883477 0.70129350624150987858 0.30768357119799355504 -0.15846125737897565067 0.25068482849084705588 0.49246759248084959193 -0.64541396348918567138 -0.52035457233232285112 0.11821837626299808166 -0.026658074647457417894 0.14295781363505796757 0.65403117445465153157 0.52356581601669294201 -0.4449342737770984324 -0.18786001378088240665 -0.71931619576957972484 0.36365485562556532084 0.86540981648818204874 0.49441831092486809851 -0.59364832305335235585 1.5973559271310442398;0.068098965367973829377 0.028577112016462218741 -0.022722493592318999261 0.29976556784197433414 -0.46372860135650306734 0.27700243185971590298 -0.20654283453274943638 0.8829224172832502715 0.11361010624945767911 0.17877374201084680894 -0.00057197589285817743241 0.58008843950734267914 0.26154604163635214453 -0.2166095769465745946 -0.42922686841106816313 -0.98126747257424851156 0.14863214336402691407 -0.70360761720195885704 -0.54720814236762937988 0.36091289866315279244 -0.55721137807369702788 0.0047113989503828968344 -0.070581082262476335654 -0.35012581343232090925 0.60088605301381214918 0.27448643137461253838 -0.85158438270443348461 -1.0615300876080402404 0.92376436940354944571 1.0002434712038044129 0.07936786728600071783 -0.19191246996460104013 -0.36985258546989657757 0.065757829248641860853 0.43652783215560725383 -0.15680658939441965982 -0.32333912623152755161 0.12368060703541333689 -0.0041568487000776697601 0.13646466739387985712 0.6389186728806710569 0.3558450542692213614 -0.46307241567149171058 -0.077132333030325087031 -0.16329352107727124199 -0.1425265293521517096 -0.40202507814994659086 0.069966243448769366298 0.31012104480067964607 -0.097786788882823882929 0.40782207371058964984 -0.3066618592280833111 -0.13734731978972955502 -0.84128900616734847429 -0.3393172587208919122 -0.72756222090433853023 0.41747322054635316313 -0.29643818867818261253 0.3686504525422912848 0.15666630405753972921 -0.43429114131112478425 -0.17512577364501399901 0.17771605195190615101 0.086461986389196082703 0.15393371065235691986 0.53916380501635619016 0.48585868655671288208 4.4087151566351430176;-0.023303126529848328802 -0.62686356458854586293 0.67867276532600773198 0.80621470121551175314 0.87572123237223775671 -0.89515670817718406838 0.39821523122440943832 -0.56933605780171248067 -0.016280247835697973791 -0.37266810137846662077 0.60845517829763229312 0.32532861747103031247 0.78563833184156606215 0.96720649602348862661 -0.39334123009421317896 -0.82803902593855593928 -0.70215744396445267661 -0.47583964717360383023 0.14381987298423115629 0.78574774468790442583 -0.065318256755087830689 -0.83091926992958620168 -0.17596152471577813925 0.80111170206834458885 0.43659892775416658806 0.44319915455119135439 -0.87942020808209231397 0.29979541604833453983 0.9634497687668549526 0.50949029464734807426 0.30685545175054734779 0.6568662256074739858 0.5895692798789210487 0.17646105051758642634 -0.024838174461384473352 -0.91929671473728513664 0.43934591858766341987 0.4163671895433369019 0.42400462249846943008 0.37319312374708929481 0.82886579491532164088 -0.80283477022022353697 0.89417549262550743983 0.50231261106004299055 -0.86018280662729706965 -0.10038682081240898891 -0.82512369509040195403 -0.23226675536294441593 -0.6010975627501408125 -0.64442362434748179378 0.72854675889396003363 0.81371288316425360865 0.90587682621118570392 0.45736517525805348017 -0.017495387961385455017 0.47413216281844711153 0.71498440937803398043 -0.84811808806600796906 -0.070072972966486235524 0.015157773360637831483 0.55982547309562458171 -0.75658529965258203287 0.80930209336432712419 -0.90579907453307029197 0.02438208012037746189 0.55301731778253859773 -0.66831475590783806506 -1.1948888939732562608;0.5134580443318103038 0.48206456880437970058 0.19822582881615080641 0.30039909018952698494 -0.56856609150008852183 0.31485366919988277967 0.39195799232206152141 -0.24461708692393568931 0.094939347324556014329 0.81757491486010258619 -0.24494619720666310769 0.78581955032018391272 -0.391100929658060259 -0.61406340287797867017 -0.18732192971372563228 -0.27290129130683210557 -0.23650626828071075192 0.4331133864579243542 0.39728490595235471661 0.096455012233597009486 -0.29359609198087921467 0.26931949702367657951 0.80756560576793390283 -0.19293146346127637569 -0.92365498584016703099 -0.75580845026713805446 -0.13470002623216922877 -0.69816440439107618765 -0.042587277819186086791 0.97655363676030271236 -0.51994652346405256793 0.73673423937568838227 -0.67965151043523586161 0.32256556692219312543 -0.73174785718338541951 -0.087177616294611071091 0.65177592820085117342 -0.51238300489495236523 -0.78659829344875298318 -0.68991289805036681848 0.49701714509359934402 -0.78250869420072166616 -0.38370706812206079039 0.21019632101390733903 0.16640220087834192708 0.44817289499890283766 -0.053406542368383908004 0.022311099957621163825 0.29260872263119980241 0.20121733182563289466 -0.0010593438156269786334 0.457920128419113448 -0.099553327560912951988 0.39873103388704667083 -0.33339796098420670933 -0.56547471288572204173 0.71727117509142301888 0.44207222649472610598 0.44317230176217264903 -0.88740067087309404403 0.004866405564245758486 -0.67587279144028311606 0.606739539186156418 0.87957416742936456178 -0.88434671266885578333 0.3771488329094828118 0.29823949718995212965 2.1931023172957524459;0.85014823130913186322 0.74294142241632177281 0.25443679629167059719 0.76347513483270090795 -0.30230189884299368819 -0.99343226160293041094 0.6155549295752693606 0.079430779403546494799 -0.95184299777609826521 -0.78999206918639319763 -0.99711949866309845802 -0.72827597165734270224 0.7902178268134887329 0.64832509526045312143 0.48350057855548128627 -0.21932590941593815836 0.5741440745627613973 0.53600374277492124353 -0.15255543038495844588 0.14529526136922213397 0.34362329879090658391 -1.0824082697003478692 0.049089581620812318408 0.67376196821896283673 -0.33018129496293641134 -0.1381263795771092151 0.26787367541374912383 -0.36666965715052146635 -0.51950605212768785623 -0.78153410826679858836 -0.87161475881138705812 0.83321114068473900449 0.16971806679018072717 0.29839927444924235767 0.56338933385166023449 0.54612390184309478336 0.3658347131128282248 -0.46921265289677505095 -0.42883488481273662751 -0.58966681156195399627 -0.29013047547148346217 -0.17157550078172909003 0.79554849366985369574 -0.60509289612384165036 -0.51338504109924409935 -0.025852198576914366818 -0.53490390063778314733 -0.2017768578739957408 -1.0144917907779935629 -0.49851887303504544002 -0.90115325089045472673 -0.038178568523828518289 -0.39525427823554737383 -0.82624115627949223928 0.66519507747202455405 -0.12687054585953108643 -0.076454336324958557802 0.2861236689677090772 -0.51953194850236417146 0.23024288189780048319 0.56980638291491558789 -0.63043643542040839201 -0.61755097147441984085 0.24923505906704176982 -0.89337874357026947347 -0.58654062591984479358 0.74126512467925032013 0.51579690564210456394;-0.47636590034651599135 -0.074944345792949521035 -0.12109205446411440421 0.2076096897474136449 0.76949775857283198022 0.34951901291760739676 -0.71896727903974988472 -0.26083378703157539258 0.051406314072207998089 0.51555697339568173909 -0.82642134593011784549 -0.95510990144932728096 -0.62906516080128616064 -1.0386636949153682519 -0.82182723675522129092 0.0035671024385193874154 -0.34464685690094487569 0.36484732139440395615 0.20557608650365907788 0.52778434961237363776 0.62903153488915253266 0.75143375160271330682 -0.36026969670487019037 -0.94407290888526984585 -0.47535794110026474701 -0.52120206137347380171 0.74494573596548896433 0.82144744146958503794 -0.67125211796485761973 -0.46490548159268541006 0.067593358702715933273 -1.0024720103551305606 0.4175967017558346317 -0.66271991130636020984 -0.31258623255772438609 -0.92040178438200348499 -0.81684067963242157351 0.89666861059836033832 0.45366785855997826538 0.38291641997448705448 0.8165222618367675711 0.70021691098470439929 0.65759093544779922969 -0.76051199529706936531 0.37598627103400472649 -0.46166013116203458155 0.56480526922359886033 0.38985310235856945882 0.75012558702787490716 0.73387527475291480794 0.27513667359055382633 -0.17948155231574508539 -0.89529976461376825636 -0.79077814388514378052 0.62998271333248678783 -0.47559719363801961078 -0.32581090984104676966 -0.44966722439993733751 0.22869862880708274888 0.41674422302773483917 -0.7168795083274331903 -0.4702296539320438562 -0.21746180107276527615 0.49003958760379534576 1.0029516147196129161 -0.026722884317439188351 -0.38306714221405879783 0.88443598183802452084;-0.28566107977431354215 0.68231350507878396616 0.41147430474810037238 0.92658252405976160304 -0.1676311129512097764 -0.25702914295813716894 -0.30864970243483186296 -0.93573461222769727108 0.44731617875227730474 0.44859783008522408077 -0.12278294032825369519 0.70060879650333385271 0.65603571315656261653 0.63472202890087914273 -0.76491282764183410325 -0.6107930333651592214 -0.84102588236393083232 0.65308011805797494542 0.74914768247718821481 0.5409257202801397435 -0.39369913708839338051 -0.48737365505519519848 0.010552147472961142041 -0.48278342530588724824 -0.069848677561875321951 0.85169555883714342936 -0.34155111739993876396 -0.94007900947665679059 -0.29008792200678262807 0.51634934717482527944 0.049140695298533626501 0.78523961208145565127 0.4937973003936019234 -0.54184568507524932812 -0.15631550795741430693 -0.94666077775691992446 -0.81947491538000993838 -0.23889250294142039266 0.43689710861889813343 -0.64118910381803595477 0.033420264344481573349 -0.81230928233387411641 0.11465252231081971002 0.18269360837395878794 0.67355607772795866861 -0.26438680088255611667 -0.52471070411701381531 0.83018399502785211741 0.33934755106977371186 0.42806295609897149212 0.033632252670645568227 0.49733887818205319009 -0.038476603918709252616 0.6291232436258877847 -0.15189064011153391442 -0.96725812689044399217 -0.33120503862289901731 0.83434402666727458531 0.66198970392075950908 0.42254571336220170252 -0.7785608326813594493 -0.32500108823183926354 0.34178079036783526323 0.10458296412276672782 -0.12471042464799217409 0.20358815779840463978 -0.17419870766997572198 1.4442535218213925496;0.17871155688819806429 -0.9088027829868151608 0.29657677014958161443 0.61865798926704174132 0.75981816035211158233 0.22168292692632476926 -0.10086241093657657975 0.58036503508696102305 0.14052384904655079723 0.35241746185940275859 0.91721554858304998881 0.59656878011998093481 0.37642765065760036558 0.69512305167677557183 -0.58829560807819814006 -0.94189198364382842321 0.41839068052475486548 0.28159915302433841111 0.34171827569665658153 0.28411449079019335251 -0.24080957965397267739 -0.05650620396974100762 -0.58258264649134039459 -0.36981607249955317229 0.019798429948165333775 -0.12600020665270872389 -0.0099300243617129468898 0.51026055565500560984 0.42596389364305464742 0.85959686169534610389 0.29252831959765485115 -0.42909462721055918744 -0.49232221426479449988 0.66600890944826729445 -0.62428074461691296371 -0.39240501675818495464 0.99013536035074378727 0.70015001494171524854 0.94331223146509135535 -0.37828643675771411736 -0.61457818370129313479 0.48040054635586176834 0.54278181141603953908 -0.83729169406555314925 0.49869067038749415044 0.1566544215882768043 -0.35337318075498092007 0.43838702927056943937 -0.61781127488746812038 0.52372664065153229362 -0.91361775576255688236 -0.3751336937134984173 -0.49967406710465206432 -0.20028998773016895574 0.71464190094012991494 0.30400703290348912722 0.019440384216699746478 -0.72810949554342430101 0.60581209775508781945 0.52927907364672088786 -0.68831059403988281709 0.65026945936986801922 -1.0056221118123049862 -0.0079907018439595405013 0.86541426562099865727 -0.53414781325838722736 0.56631348302549422424 -0.0053273151189355983509;-0.50914430618381578686 0.10025601939363547321 0.83430486975181850084 0.88156082003897395794 0.2275363152876098416 -0.50517332968272987692 -0.23026372097937325423 0.42836231892606785321 1.177648371739916211 -0.67304385203958572159 -0.46905951801547673963 0.99436709088743824303 1.1267909471427153267 0.62330042693572074164 -0.81974337244188966167 1.0946109428079664472 0.19929341956932658531 0.4367052021178705612 -0.21531585347892304161 0.08631198758165323226 0.92655024027241161821 0.51904486688298456798 -0.43077946388379184661 -0.10108555362068316619 0.77661561922689292814 -0.86485949688185814743 -0.25792571128305691319 0.44088480961743331532 0.31115014454877593097 0.91022107114252037707 0.96667204408259832515 -0.85663737701748021713 0.41268508428671513144 -0.42842808052757225257 0.42757591283541751537 -0.05340654144095297734 0.91833192372625782607 0.2279790503999689355 -0.93347891651444070416 0.79596273703495301621 -0.30622270994711320302 0.70109639235805421009 -0.37772878043707641682 -0.48425081515200396609 0.046288922269919277608 0.21815163359928377296 -0.44057537093052001609 0.38639858463282977796 0.35614222687483154672 0.22595158336862578019 0.30487808166255009334 0.82662394545236050902 -0.18930032409735297882 -0.28382708327679956328 0.74076166763776007951 -0.044347130838431933486 -0.50682013513128476578 -0.44285575746784971995 0.38243678591760582597 0.58329995016375102423 -0.57906552278090139829 -0.47266643809451491798 0.054337079894386922096 -0.017238469356461252197 -0.5984793202641216503 0.1503607113258817185 -0.004640595062667962796 -0.37277118132844144771;-0.069514845446428705222 -0.54585857439493679077 0.35540512051284184336 -0.13972200190533792807 0.084689575542159958865 -0.79826502230151152872 0.18804280928874650414 0.16573248811171623074 0.43451699873637150695 -0.19524185259690760019 -0.33098429257136779968 -0.92398978824935151799 -0.26844388015117048862 0.85047289578789442288 0.08574722983600120696 0.30956217975111666174 -0.80056399412192846832 0.38078764197265252411 -0.39824696880897791917 -0.48881516799449964417 -0.55015473034207140746 0.050371046694765941876 -0.26969776432151620904 -0.57476402771313772622 -0.76102728018433674073 0.22855022706195068927 -0.24009199606022776918 -0.95054176524706290863 -0.44173047615270044641 -0.46703171873629800714 -0.091753004739503582488 0.54444255014022324701 -0.34700784708683313218 -0.3800191712077811701 0.078959329393227015159 -0.19531805765399129493 0.77888128167084980102 -0.68508403032424103341 0.58252539488442023341 0.5566695989501921904 -0.92217183654072609755 -0.8014311422257069939 -0.53259055312373737578 0.62567973208059524115 0.73738820665300397472 -0.41752976023393273408 -0.76044390053526256246 0.9509891390145480683 -0.99365567944205446249 -0.025527116614332830136 -0.4787334817491631922 -0.012512183287154024156 -0.93929055438410746781 0.54652967711760347402 0.2306033269780344841 -0.13812188325031146685 -0.95463588111161612471 -0.71127078327041859396 0.3635037772553997848 -0.44446152587620196828 0.10688800885691812637 0.28691964876664888262 -0.78878907851138035934 -0.85729866658106079758 -0.35351218484957230848 -0.57069959228327382661 -0.92457336878193108198 0.6379982964026544856;-0.31867055204168681648 0.011880128319251946276 -0.46293598388582823944 0.3861377310586562861 -0.82454899046547347474 0.73397231154828834754 0.029848781058136611422 -1.0241280545411410863 -0.71812807091973984708 0.57491610482211541466 0.45432800431142955633 0.4846515850122959379 0.63577543240005474079 -0.38114085953312948352 0.51834759779930694723 0.87476953199919371684 0.59505855480471747665 -0.95308992107769430202 -0.47164952651295860564 -1.0175232703334557982 0.46079799361081352771 -0.75835633113220424217 0.16732739116380351829 0.030350555843359907499 0.58805441943315783782 -0.21167572149901392464 0.44173383477077377002 -0.098341607637368516626 0.21211525640778206014 -0.0036847280383383849457 -0.11868168216631791445 0.17083343078801316306 0.72410059420890748871 0.41707065710688506766 0.46791563626087312455 -0.22935635165604711938 -0.65090492047731851599 0.79696765577353456678 0.15517708472624311411 -0.13267212487947518951 -0.39436773550415499257 -0.43560355476954160103 -0.98588855711110301439 -0.21719832726622492758 0.40764871416024839323 -0.78160491334255066675 0.28723274010160110281 -0.008852341619065390646 0.49374008008305636519 -1.04318661927428602 -0.29474708243819391917 0.35134733449769450786 0.32695224655201432507 0.66792204324441462049 -0.57885557946707411059 -0.67759400726566698658 0.63911060097128136182 0.51726206729527379746 0.10269916829046575601 0.4365268087418208709 -0.38415698898451505761 0.25314169660976637566 -0.064227071148676748158 -0.41227368289588145478 0.39536940075944193573 -0.78314712096575256339 -0.46830326646401576607 1.3225803709547365727;0.03820693887077489248 -0.032566801833476495542 -0.69003926279961413925 0.21794029776627116268 0.93906810246808503084 0.41616113917840169556 0.89001850248100478069 -0.56652555456662501143 -0.66571717947564512663 -0.73942551765789699125 -0.70575989881673673043 -0.6594925244614897597 -0.38520109840594135564 0.70633430495398785709 -0.46355613778357895871 0.15801883604117539228 0.57609783583586993139 -0.531823466056436156 0.73898450754148892194 0.40719851794185540905 0.23409655334172721486 -0.10430958750150481906 0.0099903711465168833217 0.6351277021272548895 0.48922959071557020616 -0.61421160908107663712 -0.79197803035826397355 -0.5365491632813590428 -0.56465632511298469165 0.26893766962878390414 0.5649237883125236559 0.06514881767362805387 -0.017181911367707067284 0.077972935979947227692 -0.75634158930688022426 -0.6880344295200659932 1.0081581059521076416 0.54734605898830746007 -0.29946399496071474111 -0.86011246083146641883 0.33434798152576672425 -0.71673041629153799725 0.18211378105742045963 -0.90130375159019815445 -0.10897015268127373255 0.39087322344946295871 -0.43152973363279684138 0.5247733279886855895 -1.0303853065949628576 -0.40315301047846063831 -0.60590903869835188722 -0.31283697566874063556 -0.43437798822971623869 -0.13570839100326517745 0.19319618884919259605 0.58698252270766393401 -0.8340354795924560527 -0.72729353011777353455 0.2333812995081548658 -0.62787080950161933135 0.99297832337152536208 -0.11130159356064689424 -0.23821074559926469494 0.50335109647180242831 -1.0041477223881822844 0.34855511733550892384 -0.76030724949757777509 0.17307363748921950064;0.24764859301846070538 0.3977428787586525516 -0.65916234920579630518 -0.19885600903495209701 0.060769039192229791502 -0.97642833525263739158 -0.13836002473773964527 0.10979246020396256356 0.79295038696129560574 0.72735806676419334504 0.52994852277014703468 -0.39517183678740080977 -0.90902154918679722861 0.11878792228349009663 -1.0537881971725346908 0.90628326673137826752 0.81750317498848246167 -0.32707733193185700715 -0.71536593026569927911 0.76014402067491382287 -0.60347112289172144539 0.24439002532683651303 0.51961364533082288197 0.30584876845677544388 0.093450541090369973474 0.85933566670566752244 -0.69509900079112341142 0.10051264359121321601 -0.99395621907656761529 0.86562311887583776038 0.45863145532284577133 -0.98782917353025112561 -0.54823053288970469143 -0.28515718487276248139 -0.57381049667339845133 -0.99815758560077361139 -0.29430828040649414934 0.19604290501439605721 0.67711836801717606438 -0.076288512297930183292 0.46260949983929694485 0.58670390182352671893 0.22832142686186499003 0.25839684604729706852 0.11921084461129954901 0.22803917021456937553 0.34380496575061142428 -0.46567213543381474894 0.58200500246986774933 0.29537504485110688268 0.73036807184756336042 -0.22858291368508182329 0.85725483132570989842 -0.22333266460266196218 -0.76487874721525039856 0.35455657309037180713 -0.67167383949515102604 -0.83454149427832446939 -0.28861766870696281551 0.69106386370133798813 -0.90988002189331851355 -0.7016406755774277082 0.90028229118565228362 -0.68660703331187689091 0.83452357876403093773 -0.43627789959779167406 -0.38964489766442489405 0.19558291694706247954;-0.040448481773946033668 -0.2307503677790019303 0.51357435460563571894 -0.77266659495912681788 0.63992570849249164056 -0.38215888114380253127 0.0079694796988649761055 0.98486303281473619453 0.81169928073364838728 0.11880827823635166374 0.61609006886013917281 -0.2522530440092629056 0.23887318479808949956 1.0598994907031769053 -0.079404491952023523171 -0.70580092850549636108 0.14253946419023996728 -0.32612972618969537919 0.83082346933855211191 0.25802389837030276221 -0.16434966487666896606 -0.68602372433404723573 0.61306467906822981195 0.90030402797631647882 -0.7497471268226353347 0.24190243974097863644 -0.92308632270657087204 0.33208313715903170493 -0.47808502186388718291 0.90301139278732744931 1.0076095847286232754 -0.41183642425784222629 -0.7847073778219127993 0.78237112594119306852 0.096262729089011608852 0.33034896161054538855 0.32520654346542737789 -0.95956653916141765315 -0.44296866998365191925 0.2260817625548337817 -0.85985306401008843036 0.035046042727318517385 -0.35501395157719123352 -0.86451788605781287878 0.73602558770653281339 -0.86150133031235875958 -0.90158070922805988445 0.654411149935930192 -0.60003917134708428804 -0.38999666255037779283 -0.65096706413987714956 0.010502999486913650734 0.63263957448363206115 -0.48216090688372142958 0.87164587482635014215 -0.77301148208790448901 0.38850013709021236075 -0.28634608083943308143 0.21640699941860511157 -0.39650399953514758877 0.59110453545126750985 0.68484686005218253779 0.4196602650214468766 0.12367335004315926916 0.029198482762236806221 0.41782893170172502595 0.2927791361665061376 0.47303623725694593505;-0.64279664396658842129 -0.53412054774869688334 -0.83623076496648107714 0.25652010897622101737 0.085924108759813100367 -0.1712265849020975228 0.16740282271363657318 -0.47533201417258524879 -0.6009623039138944911 0.75112468188586922757 0.30686759011675357467 -0.14547392325296495952 -0.51875854785092123667 -0.39817519730856487659 0.42632744786052595432 -0.87701991254254885177 -0.71957008169665104269 -0.98886128656054217423 0.031078862591118857489 0.13985450965455945016 -0.4409217567406703564 -0.50523718728754074547 -0.3158193233324962379 -0.09856164732951072649 0.16811230925156592231 0.64354793737133098031 -0.02569805292359172294 0.40905408663502340616 0.26618562671006745779 -0.48233530496701765289 -0.09774942746852569031 0.72330127267396526758 0.54243241977038147983 -0.77891199676033207044 -0.19926101383833733083 0.63141464289604010141 0.83554972007806105339 0.62562131991299019251 -0.84736534995608325804 -0.0077865492360420836965 -0.57357628408549943266 0.40751326392073339289 -0.18075955568059981493 0.70282163457142909913 -0.86901760820119744455 0.86681007032297452408 -0.63523951748116269655 0.30270432227687060767 0.45844953115726705395 -0.66151267148905967819 0.3747197100681151638 -0.62228558018825619325 -0.20505032222253516405 -0.27501111951482704043 0.60874955785157125465 0.80636140403243194985 -0.2977416032733539164 0.67380262913232269462 -0.80618419085691106485 0.44630133118591508445 0.50346938131514140657 0.5444759931120820573 0.21919655747059346718 0.71198297846356917162 0.82495244614926910298 -0.50648886022314520972 0.36888319182796369677 -1.0345342780490685008;-0.41876500115025538928 0.48655746548583878042 -0.8058858821535600514 0.03535496173083699234 0.17909252979011308637 -0.49372996684554765201 0.28277323455978342626 -0.63715812926758674806 -1.24020509608071694 0.94325699882601332646 -0.66921114009958893032 0.67894574643476046649 -0.85336667027196189128 -0.52046480286424001704 -0.69275240993797682076 0.38452304904910566963 -0.21269504194343574754 -0.2959477428537905519 -0.31034898729483934021 -0.55334792013943134847 0.67569984492977597235 -0.12476972502200983639 -0.007517110691012536712 -0.54634171454287183689 0.78275886557916429798 -0.57883446919841186062 0.9273049884170397883 -0.33715320460659464752 -0.45215288069559439466 -0.65269533507976273956 -0.20612785587144302757 -0.051528909460420123378 0.84728716245796564799 0.47962774730926027722 -0.72437777684577475679 0.14104619348479854879 -0.40751476108948209154 0.63393895852133319568 0.1960533230662047377 0.56150967817379027203 0.64234953197619681919 0.039371184269319278726 0.25395717494496627964 0.045804509665730248902 -0.045291017851212631018 0.45775599369720687548 -0.35445330809249886439 -0.045341953180838216741 -0.14652335626656770584 0.39618294790529934302 -0.66955863575110607933 0.13030679659104760226 -0.50743951695707378846 -0.036487064453082231064 -0.36468827325303926346 -0.37228744494517740371 0.53753633347766804906 0.65426209647793864832 -0.27766888811566747819 0.35697311705858431052 0.44364838953375818065 0.20356650463487557801 0.32058233198746083348 -0.2381395568340068658 -0.014925721299706692924 -0.91896093578288007286 -0.74654076064118946032 -2.2687754126776482622;-0.0874462148937074496 -0.43661214269492515383 -0.54367838137403035059 -0.36204344414642813943 0.69539136726317174464 0.21510696158676978484 0.58341557043063863031 -0.21445940742675942414 -0.62452723611648708335 0.12554167120909301425 1.0229295843525616494 0.33556540503670434505 0.38558898262748808605 0.52321939459507960102 -0.52133370927858502242 -0.49437574311070486832 0.1160097528791312893 -0.57830318309983386182 -0.96358365918764476987 -0.28403190763413593833 -0.41084797163966324529 0.36928482724419797734 -0.87600762353047356701 -0.36141661180733331005 -0.35870462843729883362 0.12731494513237240351 -0.69097433036918853855 0.13047758347939678036 -0.29593871397613646934 0.035440041615691114663 0.42443934310754760642 -0.34243378221040227105 -0.05197367734482049445 -0.41513182360155220785 -0.85394333178702996889 0.44870229415058338063 -0.01683001452516601909 0.34302874357085966217 0.69254797179298077658 -1.0498608640220037369 0.85911175837402387057 -0.48459515178519552148 -0.77558160934509523532 -0.26954103810001789343 -0.29971083464121900386 -0.77653550372605728569 -0.25184829821530085869 -0.042424515480948957191 0.16739201231799674674 0.28022900236681735908 0.33933381112824712034 -0.076642731104679701071 0.30825916388997942619 0.72921826124156252646 -0.14023126876113500838 -1.0373847329680292439 0.4559150139208895669 0.51218024037864773312 -0.29549225116166977223 0.68047603168685166786 -0.26034660868509307274 -0.65250881621978362723 0.42851338303354175041 -0.38673644820987934656 0.25790402340822105032 0.65418085097986544696 -0.64578041723914703098 -2.0832302585635389391;0.91221631985712259283 0.83030864284695204969 -0.70292273219232981329 -0.91606378923051090535 -0.7712766941776917351 -0.70405544846977130558 -0.27039506037681027006 0.00391860711358617015 0.94672238840470124277 -0.46143448166865058679 0.72676900989201442815 0.37204307161153604699 0.013472169910489722663 -0.17043980174743550426 -0.44461422879742135139 -0.54587439716657393252 -0.57485856877493290984 -0.17173735899461020638 0.72697842044301019815 0.090070322626631574292 0.90325198885412805172 0.054685221378907647449 0.57933167238830995949 -0.78465272353651505099 0.19005450572392279529 0.56215364659875111109 0.61652843424662295835 0.33064638068486534861 0.065317426943670833794 0.081373045804843682771 -0.79747983755275242412 0.44954348787918635422 -0.068586314904165113226 0.70367172914566711306 -0.5953867355355240143 -0.40076863695208042593 0.10036023809469431234 -0.37141374581199965155 -0.52200916233552474566 -0.34174388371284819543 0.76689657977313330228 0.42692953485014489834 -0.11036390448423825938 -0.64241897742910802904 -0.068893365354102495401 0.85997392827454499642 0.096976767543198394428 -0.6488316758179821786 1.0651070831548181683 -0.66691867120355374787 -0.37325722582982961972 0.44298161866915480855 0.32617008470074687621 -0.28468982505123346938 -0.48047692183435108948 -0.087023711507900725071 -0.78695426617676378367 -0.77703616895733529368 0.72410032146483871429 -0.94038393277348775179 0.059024344676470233417 0.85657987697048176834 0.95565360379788577561 0.68767785243464218947 0.85713124305486732002 -0.99405413695159827725 -0.49100660790456424065 0.60939867000004366293;-0.035765073554475952655 0.041276731733798817381 -0.20839324513593671107 0.22454899838359163033 0.36824771480026952108 0.54698532128721510936 0.5396938190618179032 0.33298770858594678446 0.045435386543319321306 -0.60651536777331216399 0.53006983600343959839 0.061250501892287707861 0.15097844725491274542 -0.41555607008033806915 -0.29460647894435615379 1.2620964984628264549 0.72533900736230971784 -0.33470641116325733355 0.24457109179127345389 -0.43553342401887912283 -0.63326225497674626386 1.0389798400200200845 -0.67097358445166921381 -0.087410949486931996399 0.24737980874527570885 -0.97083584862774319202 0.24348574357054630912 -0.83757196155033830642 -0.10818927503737042761 -0.55225522328015541618 -0.38079825029734193365 -0.55104167581527130348 0.17496226159312827653 -0.3152151490755337182 0.973913204152913492 -0.71135427105418769234 -0.075100101885340386776 0.36129964987816054478 -0.075722959621028568256 -1.4346249096826331204 -0.41639631024104911683 0.34559804129367976966 -0.1250756196212408633 0.89144398887882048133 0.16162155594173124862 0.17006162086467679906 -0.97506373706701432447 0.80158827707179614031 -0.026775702953265263784 0.17996905117853292944 -0.17705555047406029701 0.48051503253607236177 -0.032377258609985790083 0.55199222462342156792 -0.77080860136535656046 0.62106909940548704618 0.47437218978841000361 0.039565952297672950244 -0.49963007365304046292 0.25310449069919638276 -0.2100707783578958654 0.57370555586728766428 -0.27592984860280822534 -0.50071463825376627543 0.37956399807310120531 0.54098603930467326073 1.0841944191929564489 2.9633152603751256038;-0.24284292187209816083 -0.83196864955333393876 0.077184098964974190427 -0.65327022276480850582 -0.77834569118933416565 0.0099279919863766320082 0.28756969133437060293 -0.74628884393289296462 -0.38193643616700512222 0.71341379407334715168 0.072066401676891073125 -0.79276740379701593486 0.57882835473070415322 -0.043062024847335053646 0.32317948199850377033 -0.72823690770229965175 0.19195395638946641248 0.35317637787309313913 0.92660429325256599142 -0.73197141421805911321 0.33863666538786085791 0.5835474841969732207 -0.22122192560744943779 -0.82786043482107807279 -0.80140815360610262452 1.0572394476105355654 -0.090858148599483545826 -0.80157509009848537662 -0.25451113838962297065 -0.65367092390648928735 0.58836610859464277823 0.26155299031466172632 0.99747456970174364077 0.75979218117724689474 -0.36351257564856842563 -0.22282550444226009723 0.571987428624469052 0.81710690744617042736 0.23813028762899868251 0.77251388141794374853 0.15563478291524651675 0.51411719747200512742 -0.21544752818313633869 0.64531976026533932611 0.11795177306208967649 -0.6870879623211503251 -0.6725656646321220844 -0.86964282932479086696 -0.9369406938199509316 -0.41429117911611534897 0.87808749563501675706 -0.19039654969380487293 -0.41656559548095101198 -0.24288974504249388753 0.54243046528828142705 0.019997209156917158251 0.38209497957437638105 -0.44332589490849294567 -0.41790673349487689192 0.26860415182439778548 -0.69116619825759351148 -0.70012897814888641612 -0.62281859096561498212 0.72342859727973329864 0.33903062368008141103 0.27935544107097531885 -0.50651745381785784339 -0.26151751054682298436];

% Layer 2
b2 = [0.43976158776259721694;0.61848358596499941608;0.17640190954138307289;-0.21774360221809305194;-0.34742044674391031611;0.40631358794562683068;0.70839029973124023609;0.18381173290746408155;0.26568777950996153026;0.11193951524315455537];
LW2_1 = [-0.3135053472099554317 -0.51782030924984878695 0.22847829788262086215 0.14773746394070924604 -0.55035348879760237484 -0.4235121863603590886 0.15996142474985847182 -0.85372464908404577244 0.79840565347330971768 -0.51639916494198856434 0.5777874252998399518 -0.35773123229861930605 -0.22754690853799378059 0.13759370898342862533 0.75676980973082597082 -0.14193367439169427002 0.19143446684799023116 0.89988849076114629799 -0.68603586417909623307 -0.58761044976788578964 -0.9905305954347263242 -0.76008603338274849381 -0.28235819503559234089 -0.80135690558406869055 0.7395576055872108423 0.11289520585888711268 -0.33615126735101963362 0.7575337212068852244 -0.39330408249584164482 -0.48550217580300086828;0.53656043751385973373 0.22613098244502477518 0.70003031262569026527 0.090567054942866348499 0.19452999559243849825 -0.028829878951866554082 0.4557608797041151627 0.42077228809172889656 -0.77254056771528800684 0.048584475685931174938 -0.1996057063563382028 -2.2101623689334810585 -0.40803183332227227487 -0.37597729249591188561 -0.064961591475782856642 -0.18678648119417318174 -0.015851753523529642925 0.25345691331961012205 -0.70076079182534112277 -0.38538705056765543144 -0.46109630909248422448 -0.12127462740636657523 -0.069088943147589551574 -0.050219739307517635707 -0.13207943680649303353 0.45106788387999707801 0.4497350553297725928 0.20226653586415743735 -1.6797410439651971892 0.42317914754587193649;0.44367561623481249766 -0.51099185475706221382 0.42857121336714043558 0.71835667147469095539 -0.93245122347319364664 0.22042404727266962094 -0.94365360104892670456 -0.059555944178965723734 -0.92334713812742497119 -0.21513833204659146836 -0.35459967902685296526 0.13165137910560481549 0.10443933336943719836 0.78557037292119280547 0.44306626865085080302 -0.26042885578483504494 0.87831553140283002978 0.53750333917562687081 -0.50616989578620497081 0.17883371296627648128 0.97213225998487473589 0.46941300222007459331 -0.41518329151130062282 0.097640225508319800074 0.65857389097552521129 -0.047784552624414868005 -1.0151584521342060796 0.16507759593521009744 0.84086224380695007152 -0.59865357930900664485;-0.52267246813803891481 -0.63007386357104955277 -0.025293521867268090042 -0.95935495040495633035 -0.49830028229641709636 -0.21387787255126899932 -0.22022406981786382674 0.45624949404297027167 -0.48774061590274314648 0.49923473735215262437 -0.34356140033386728394 -0.50079997900951056522 -0.25666586523144463428 -0.60000205397130301765 0.38265758157175200349 0.5827258697799758691 0.32089805517709185656 0.26218219319326202532 0.45545510003483907768 -0.1419857542188246724 -0.86094734948070839042 -0.15001151972462262174 0.15053556059700654024 0.25942191562043803721 0.38192075707733869061 -0.79214480457732827645 -0.24873756139906166851 -0.72049382975056386336 0.238086193859618378 0.24249263890498237717;0.60793522740364258627 0.81694143391889129102 -0.057250903052230010803 -0.85172314505085078284 0.42752227996512043307 -1.1455213267152863921 -0.17598780506441277782 0.82520473914125447301 -0.35562792438981044585 0.0086533133853522129636 -0.4420956898271522495 -0.31894015401385250597 -0.099997838216701523395 -0.80794395576714317375 -0.025954088250332862237 0.11708185442232420248 0.69282212292273159804 -0.90928458384843913187 -0.89404765499855409772 -0.51623802110645644614 -0.29773512714079763963 -0.071362428358730162214 -0.46483763475703410162 -0.44428246384928143931 0.53197686684443368232 0.48919448318598640624 -0.7761461727711103098 -0.35924429327559326275 -0.8302960427001084831 0.0025812100876118370708;-0.45327176349991948889 0.36566642182529945915 1.4461546208138296166 0.11865361636625110231 -0.28507269928520506674 0.0072352646166610468104 0.90445837924274230524 0.77915837686301603338 0.46084867343263041795 0.11935851157938769107 -0.080634295511607625984 -1.3686823443670719236 -0.46384543674147449277 0.23404531948726653434 -0.23057205490038629181 -0.60440148431294060671 0.0093568294740690588496 0.46144157926293466465 0.706122712675833486 -0.50558043605195779335 -0.60207913312155525443 -0.40422732897330621027 -0.38821847603321274489 0.34156043197758628738 -0.84365446052062820215 1.267854743597048861 0.5114654993169400754 0.4754489447331657348 -0.133655014509954706 0.80233372953244719294;0.50497383166980491787 -0.87725420847043467099 -0.7029700033858413688 -0.58639972384993155341 0.021208386134267294409 0.020791188759774582168 0.28594698750218583427 -0.34969255065237753177 0.79203172908216734616 -0.35602003638491808157 -0.72654545993758512523 -0.048112434353073628424 0.84693432976371729737 -0.52481983510496077461 0.61553505253626683569 -0.83134002117162353329 -0.60159027428315281494 -0.052075632658438918143 -0.25291123893023026437 0.0054309556967898986804 -0.60959638039027508327 0.65974278247200002223 0.50307466408381584788 0.7576941157508133573 0.26614124298118535528 -0.8616035500338868891 -0.63931956320954186346 -0.42591372642447367092 -0.61404063075290538087 -0.47604468161795143732;-0.20421908680141090398 -0.098836073251428013808 -0.79247975779017021392 -0.70826212730651350036 0.2439489629547310634 -1.4227807830003642575 -0.27451802603141861603 0.055011495035240290385 0.47550440314357478311 -0.78084950751708803729 -0.32226762762116595296 0.74875776602926802372 0.31552492789282693408 0.44824627152011831122 0.66275409765410453478 -0.0192984615632632861 -0.86082406709022829538 -0.20455343141501100557 -0.66873489563054500096 -0.24783563356079602036 -0.29043970556170689568 0.27322735364645894807 -0.24578284530334895686 -0.98769273884838093558 0.66328901648379079425 0.8244951700643253778 0.38052827986307602437 -0.75895730965129393208 0.5227772026620888246 0.15333930247140220571;-0.32139283372607019285 -0.86367588878205647784 -0.88935488425900699472 -0.94394710852023810954 -0.47301766941898354402 0.31083066306860612782 -0.24118061293027073799 0.37033316707363095333 0.051008334078695614922 0.11982250224369521419 -0.27513554432441550412 -0.3477176715900157089 0.76047702090198121549 -0.15826269208287752077 -0.42475954976787405615 0.75478882747490727567 -0.83591977835923814144 0.79405930976011818156 -0.38323958276926595179 0.32605094767860637317 -0.44413015296392754916 -0.60762177425606334058 0.46551302460047805365 0.46022179007266872386 -0.4055456246480081961 0.084940306400102999485 -0.34384715910223889734 -0.033257836826906424232 0.89847667812570397583 -0.93443648683765967444;-0.70005376788415429878 -0.22823097355212013104 -1.108624288498289534 0.82039244303725833429 -0.67481850574174973012 0.024594972093886623837 0.28531955945629666749 -0.32675142369034249068 0.92171001765671789485 0.027478556413676333975 -0.68680446377991144491 -0.21391637080022565809 -0.10428552028011303654 -0.30729615304811469523 -0.82103450718416792764 -0.83597563742355318617 0.79364829770193590086 -0.52312843023239752327 -0.79845232834028267987 0.5936676411519663521 -0.84406533574529241104 -1.1362100163880661796 -0.065147489159196866892 0.30597742248500420237 -0.49089006115659883367 -0.045797834955916522093 0.4162255101770951371 0.32846936828231998451 -0.041414610077904180641 0.43294664721879483338];

% Layer 3
b3 = 0.70347214615988962194;
LW3_2 = [-0.014788589911998051285 -0.46864077673475423857 -0.0640006414755443509 -0.14645321717597678535 -0.16605094970224185125 0.19184862549465842019 -0.054931588640824910441 0.58161255339111683771 0.055815590062790736148 0.83600415030188668375];

% ===== SIMULATION ========

% Format Input Arguments
isCellX = iscell(X);
if ~isCellX
  X = {X};
end

% Dimensions
TS = size(X,2); % timesteps
if ~isempty(X)
  Q = size(X{1},2); % samples/series
else
  Q = 0;
end

% Allocate Outputs
Y = cell(1,TS);

% Time loop
for ts=1:TS

    % Input 1
    Xp1 = mapminmax_apply(X{1,ts},x1_step1);
    
    % Layer 1
    a1 = poslin_apply(repmat(b1,1,Q) + IW1_1*Xp1);
    
    % Layer 2
    a2 = poslin_apply(repmat(b2,1,Q) + LW2_1*a1);
    
    % Layer 3
    a3 = repmat(b3,1,Q) + LW3_2*a2;
    
    % Output 1
    Y{1,ts} = a3;
end

% Final Delay States
Xf = cell(1,0);
Af = cell(3,0);

% Format Output Arguments
if ~isCellX
  Y = cell2mat(Y);
end
end

% ===== MODULE FUNCTIONS ========

% Map Minimum and Maximum Input Processing Function
function y = mapminmax_apply(x,settings)
  y = bsxfun(@minus,x,settings.xoffset);
  y = bsxfun(@times,y,settings.gain);
  y = bsxfun(@plus,y,settings.ymin);
end

% Linear Positive Transfer Function
function a = poslin_apply(n,~)
  a = max(0,n);
  a(isnan(n)) = nan;
end
